digraph Tree {
node [shape=box, style="rounded", color="black", fontname=helvetica] ;
edge [fontname=helvetica] ;
0 [label=<X<SUB>4</SUB> &le; 1<br/>gini = 0.45<br/>samples = 670>] ;
1 [label=<X<SUB>0</SUB> &le; 1<br/>gini = 0.34<br/>samples = 434>] ;
2 [label=<X<SUB>8</SUB> &le; 1<br/>gini = 0.25<br/>samples = 270>] ;
3[label=<gini = 0<br/>samples = 152>] ;
2 -> 3 ;
5 [label=<X<SUB>2</SUB> &le; 1<br/>gini = 0.45<br/>samples = 118>] ;
6 [label=<X<SUB>6</SUB> &le; 1<br/>gini = 0.33<br/>samples = 73>] ;
7[label=<gini = 0<br/>samples = 44>] ;
6 -> 7 ;
9 [label=<X<SUB>7</SUB> &le; 1<br/>gini = 0.5<br/>samples = 29>] ;
10 [label=<X<SUB>1</SUB> &le; 1<br/>gini = 0.12<br/>samples = 15>] ;
11[label=<gini = 0<br/>samples = 12>] ;
10 -> 11 ;
13 [label=<X<SUB>5</SUB> &le; 1<br/>gini = 0.44<br/>samples = 3>] ;
14[label=<gini = 0<br/>samples = 2>] ;
13 -> 14 ;
16[label=<gini = 0<br/>samples = 1>] ;
13 -> 16 ;
10 -> 13 ;
9 -> 10 ;
20[label=<gini = 0<br/>samples = 14>] ;
9 -> 20 ;
6 -> 9 ;
5 -> 6 ;
24 [label=<X<SUB>5</SUB> &le; 1<br/>gini = 0.49<br/>samples = 45>] ;
25 [label=<X<SUB>3</SUB> &le; 1<br/>gini = 0.23<br/>samples = 23>] ;
26 [label=<X<SUB>4</SUB> &le; 0<br/>gini = 0.1<br/>samples = 18>] ;
27 [label=<X<SUB>6</SUB> &le; 1<br/>gini = 0.38<br/>samples = 4>] ;
28[label=<gini = 0<br/>samples = 3>] ;
27 -> 28 ;
30[label=<gini = 0<br/>samples = 1>] ;
27 -> 30 ;
26 -> 27 ;
33[label=<gini = 0<br/>samples = 14>] ;
26 -> 33 ;
25 -> 26 ;
36 [label=<X<SUB>0</SUB> &le; 0<br/>gini = 0.48<br/>samples = 5>] ;
37[label=<gini = 0<br/>samples = 2>] ;
36 -> 37 ;
39 [label=<X<SUB>5</SUB> &le; 0<br/>gini = 0.44<br/>samples = 3>] ;
40[label=<gini = 0<br/>samples = 1>] ;
39 -> 40 ;
42[label=<gini = 0<br/>samples = 2>] ;
39 -> 42 ;
36 -> 39 ;
25 -> 36 ;
24 -> 25 ;
47[label=<gini = 0<br/>samples = 22>] ;
24 -> 47 ;
5 -> 24 ;
2 -> 5 ;
1 -> 2 ;
52 [label=<X<SUB>6</SUB> &le; 1<br/>gini = 0.45<br/>samples = 164>] ;
53 [label=<X<SUB>2</SUB> &le; 1<br/>gini = 0.34<br/>samples = 113>] ;
54[label=<gini = 0<br/>samples = 68>] ;
53 -> 54 ;
56 [label=<X<SUB>1</SUB> &le; 1<br/>gini = 0.49<br/>samples = 45>] ;
57 [label=<X<SUB>5</SUB> &le; 1<br/>gini = 0.28<br/>samples = 24>] ;
58 [label=<X<SUB>7</SUB> &le; 1<br/>gini = 0.11<br/>samples = 17>] ;
59[label=<gini = 0<br/>samples = 14>] ;
58 -> 59 ;
61 [label=<X<SUB>3</SUB> &le; 1<br/>gini = 0.44<br/>samples = 3>] ;
62[label=<gini = 0<br/>samples = 2>] ;
61 -> 62 ;
64[label=<gini = 0<br/>samples = 1>] ;
61 -> 64 ;
58 -> 61 ;
57 -> 58 ;
68 [label=<X<SUB>8</SUB> &le; 1<br/>gini = 0.49<br/>samples = 7>] ;
69[label=<gini = 0<br/>samples = 4>] ;
68 -> 69 ;
71[label=<gini = 0<br/>samples = 3>] ;
68 -> 71 ;
57 -> 68 ;
56 -> 57 ;
75[label=<gini = 0<br/>samples = 21>] ;
56 -> 75 ;
53 -> 56 ;
52 -> 53 ;
79 [label=<X<SUB>3</SUB> &le; 1<br/>gini = 0.48<br/>samples = 51>] ;
80 [label=<X<SUB>7</SUB> &le; 1<br/>gini = 0.31<br/>samples = 26>] ;
81 [label=<X<SUB>1</SUB> &le; 1<br/>gini = 0.18<br/>samples = 20>] ;
82[label=<gini = 0<br/>samples = 14>] ;
81 -> 82 ;
84 [label=<X<SUB>7</SUB> &le; 0<br/>gini = 0.44<br/>samples = 6>] ;
85[label=<gini = 0<br/>samples = 3>] ;
84 -> 85 ;
87 [label=<X<SUB>2</SUB> &le; 0<br/>gini = 0.44<br/>samples = 3>] ;
88[label=<gini = 0<br/>samples = 1>] ;
87 -> 88 ;
90[label=<gini = 0<br/>samples = 2>] ;
87 -> 90 ;
84 -> 87 ;
81 -> 84 ;
80 -> 81 ;
95 [label=<X<SUB>1</SUB> &le; 0<br/>gini = 0.5<br/>samples = 6>] ;
96[label=<gini = 0<br/>samples = 2>] ;
95 -> 96 ;
98 [label=<X<SUB>2</SUB> &le; 0<br/>gini = 0.38<br/>samples = 4>] ;
99[label=<gini = 0<br/>samples = 1>] ;
98 -> 99 ;
101[label=<gini = 0<br/>samples = 3>] ;
98 -> 101 ;
95 -> 98 ;
80 -> 95 ;
79 -> 80 ;
106[label=<gini = 0<br/>samples = 25>] ;
79 -> 106 ;
52 -> 79 ;
1 -> 52 ;
0 -> 1[labeldistance=2.5, labelangle=45, headlabel="True"] ;
111 [label=<X<SUB>0</SUB> &le; 1<br/>gini = 0.48<br/>samples = 236>] ;
112 [label=<X<SUB>6</SUB> &le; 1<br/>gini = 0.5<br/>samples = 163>] ;
113 [label=<X<SUB>3</SUB> &le; 1<br/>gini = 0.5<br/>samples = 106>] ;
114 [label=<X<SUB>1</SUB> &le; 1<br/>gini = 0.45<br/>samples = 64>] ;
115 [label=<X<SUB>2</SUB> &le; 1<br/>gini = 0.12<br/>samples = 30>] ;
116[label=<gini = 0<br/>samples = 17>] ;
115 -> 116 ;
118 [label=<X<SUB>6</SUB> &le; 0<br/>gini = 0.26<br/>samples = 13>] ;
119[label=<gini = 0<br/>samples = 1>] ;
118 -> 119 ;
121 [label=<X<SUB>3</SUB> &le; 0<br/>gini = 0.15<br/>samples = 12>] ;
122 [label=<X<SUB>8</SUB> &le; 1<br/>gini = 0.44<br/>samples = 3>] ;
123[label=<gini = 0<br/>samples = 2>] ;
122 -> 123 ;
125[label=<gini = 0<br/>samples = 1>] ;
122 -> 125 ;
121 -> 122 ;
128[label=<gini = 0<br/>samples = 9>] ;
121 -> 128 ;
118 -> 121 ;
115 -> 118 ;
114 -> 115 ;
133 [label=<X<SUB>7</SUB> &le; 1<br/>gini = 0.48<br/>samples = 34>] ;
134[label=<gini = 0<br/>samples = 14>] ;
133 -> 134 ;
136[label=<gini = 0<br/>samples = 20>] ;
133 -> 136 ;
114 -> 133 ;
113 -> 114 ;
140 [label=<X<SUB>5</SUB> &le; 1<br/>gini = 0.46<br/>samples = 42>] ;
141 [label=<X<SUB>6</SUB> &le; 0<br/>gini = 0.38<br/>samples = 20>] ;
142[label=<gini = 0<br/>samples = 7>] ;
141 -> 142 ;
144 [label=<X<SUB>0</SUB> &le; 0<br/>gini = 0.47<br/>samples = 13>] ;
145[label=<gini = 0<br/>samples = 3>] ;
144 -> 145 ;
147 [label=<X<SUB>5</SUB> &le; 0<br/>gini = 0.5<br/>samples = 10>] ;
148 [label=<X<SUB>1</SUB> &le; 1<br/>gini = 0.38<br/>samples = 4>] ;
149[label=<gini = 0<br/>samples = 2>] ;
148 -> 149 ;
151 [label=<X<SUB>2</SUB> &le; 0<br/>gini = 0.5<br/>samples = 2>] ;
152[label=<gini = 0<br/>samples = 1>] ;
151 -> 152 ;
154[label=<gini = 0<br/>samples = 1>] ;
151 -> 154 ;
148 -> 151 ;
147 -> 148 ;
158 [label=<X<SUB>8</SUB> &le; 0<br/>gini = 0.44<br/>samples = 6>] ;
159[label=<gini = 0<br/>samples = 1>] ;
158 -> 159 ;
161 [label=<X<SUB>1</SUB> &le; 1<br/>gini = 0.48<br/>samples = 5>] ;
162 [label=<X<SUB>2</SUB> &le; 1<br/>gini = 0.44<br/>samples = 3>] ;
163[label=<gini = 0<br/>samples = 1>] ;
162 -> 163 ;
165[label=<gini = 0<br/>samples = 2>] ;
162 -> 165 ;
161 -> 162 ;
168 [label=<X<SUB>2</SUB> &le; 1<br/>gini = 0.5<br/>samples = 2>] ;
169[label=<gini = 0<br/>samples = 1>] ;
168 -> 169 ;
171[label=<gini = 0<br/>samples = 1>] ;
168 -> 171 ;
161 -> 168 ;
158 -> 161 ;
147 -> 158 ;
144 -> 147 ;
141 -> 144 ;
140 -> 141 ;
179[label=<gini = 0<br/>samples = 22>] ;
140 -> 179 ;
113 -> 140 ;
112 -> 113 ;
183 [label=<X<SUB>2</SUB> &le; 1<br/>gini = 0.43<br/>samples = 57>] ;
184 [label=<X<SUB>2</SUB> &le; 0<br/>gini = 0.4<br/>samples = 25>] ;
185[label=<gini = 0<br/>samples = 2>] ;
184 -> 185 ;
187 [label=<X<SUB>1</SUB> &le; 1<br/>gini = 0.34<br/>samples = 23>] ;
188 [label=<X<SUB>8</SUB> &le; 1<br/>gini = 0.26<br/>samples = 20>] ;
189 [label=<X<SUB>5</SUB> &le; 1<br/>gini = 0.12<br/>samples = 16>] ;
190[label=<gini = 0<br/>samples = 11>] ;
189 -> 190 ;
192 [label=<X<SUB>0</SUB> &le; 0<br/>gini = 0.32<br/>samples = 5>] ;
193[label=<gini = 0<br/>samples = 1>] ;
192 -> 193 ;
195[label=<gini = 0<br/>samples = 4>] ;
192 -> 195 ;
189 -> 192 ;
188 -> 189 ;
199 [label=<X<SUB>3</SUB> &le; 0<br/>gini = 0.5<br/>samples = 4>] ;
200[label=<gini = 0<br/>samples = 2>] ;
199 -> 200 ;
202[label=<gini = 0<br/>samples = 2>] ;
199 -> 202 ;
188 -> 199 ;
187 -> 188 ;
206 [label=<X<SUB>3</SUB> &le; 0<br/>gini = 0.44<br/>samples = 3>] ;
207[label=<gini = 0<br/>samples = 1>] ;
206 -> 207 ;
209[label=<gini = 0<br/>samples = 2>] ;
206 -> 209 ;
187 -> 206 ;
184 -> 187 ;
183 -> 184 ;
214[label=<gini = 0<br/>samples = 32>] ;
183 -> 214 ;
112 -> 183 ;
111 -> 112 ;
218 [label=<X<SUB>8</SUB> &le; 1<br/>gini = 0.42<br/>samples = 73>] ;
219 [label=<X<SUB>1</SUB> &le; 0<br/>gini = 0.48<br/>samples = 37>] ;
220[label=<gini = 0<br/>samples = 11>] ;
219 -> 220 ;
222 [label=<X<SUB>3</SUB> &le; 0<br/>gini = 0.49<br/>samples = 26>] ;
223 [label=<X<SUB>2</SUB> &le; 1<br/>gini = 0.28<br/>samples = 6>] ;
224[label=<gini = 0<br/>samples = 4>] ;
223 -> 224 ;
226 [label=<X<SUB>5</SUB> &le; 0<br/>gini = 0.5<br/>samples = 2>] ;
227[label=<gini = 0<br/>samples = 1>] ;
226 -> 227 ;
229[label=<gini = 0<br/>samples = 1>] ;
226 -> 229 ;
223 -> 226 ;
222 -> 223 ;
233 [label=<X<SUB>8</SUB> &le; 0<br/>gini = 0.42<br/>samples = 20>] ;
234[label=<gini = 0<br/>samples = 4>] ;
233 -> 234 ;
236 [label=<X<SUB>6</SUB> &le; 0<br/>gini = 0.47<br/>samples = 16>] ;
237[label=<gini = 0<br/>samples = 2>] ;
236 -> 237 ;
239 [label=<X<SUB>7</SUB> &le; 0<br/>gini = 0.49<br/>samples = 14>] ;
240[label=<gini = 0<br/>samples = 2>] ;
239 -> 240 ;
242 [label=<X<SUB>6</SUB> &le; 1<br/>gini = 0.5<br/>samples = 12>] ;
243 [label=<X<SUB>7</SUB> &le; 1<br/>gini = 0.47<br/>samples = 8>] ;
244[label=<gini = 0<br/>samples = 4>] ;
243 -> 244 ;
246 [label=<X<SUB>3</SUB> &le; 1<br/>gini = 0.38<br/>samples = 4>] ;
247[label=<gini = 0<br/>samples = 3>] ;
246 -> 247 ;
249[label=<gini = 0<br/>samples = 1>] ;
246 -> 249 ;
243 -> 246 ;
242 -> 243 ;
253 [label=<X<SUB>7</SUB> &le; 1<br/>gini = 0.38<br/>samples = 4>] ;
254[label=<gini = 0<br/>samples = 3>] ;
253 -> 254 ;
256[label=<gini = 0<br/>samples = 1>] ;
253 -> 256 ;
242 -> 253 ;
239 -> 242 ;
236 -> 239 ;
233 -> 236 ;
222 -> 233 ;
219 -> 222 ;
218 -> 219 ;
265[label=<gini = 0<br/>samples = 36>] ;
218 -> 265 ;
111 -> 218 ;
0 -> 111[labeldistance=2.5, labelangle=-45, headlabel="False"] ;
}
